digraph Tree {
node [shape=box, style="filled, rounded", color="black", fontname=helvetica] ;
edge [fontname=helvetica] ;
0 [label="median_income <= 0.444\nmse = 7648355089.636\nsamples = 787\nvalue = 209645.371", fillcolor="#f6d4bc"] ;
1 [label="median_income <= -0.712\nmse = 3742567915.001\nsamples = 577\nvalue = 175309.534", fillcolor="#f8decb"] ;
0 -> 1 [labeldistance=2.5, labelangle=45, headlabel="True"] ;
2 [label="latitude <= 1.04\nmse = 3293761699.166\nsamples = 181\nvalue = 133629.287", fillcolor="#fbeade"] ;
1 -> 2 ;
3 [label="population_per_household <= -0.082\nmse = 1520753873.438\nsamples = 160\nvalue = 121888.75", fillcolor="#fbede3"] ;
2 -> 3 ;
4 [label="longitude <= -1.34\nmse = 2110792892.562\nsamples = 33\nvalue = 168127.273", fillcolor="#f9e0ce"] ;
3 -> 4 ;
5 [label="housing_median_age <= -0.011\nmse = 634475625.0\nsamples = 16\nvalue = 140275.0", fillcolor="#fae8db"] ;
4 -> 5 ;
6 [label="longitude <= -1.355\nmse = 132937600.0\nsamples = 5\nvalue = 159380.0", fillcolor="#f9e3d2"] ;
5 -> 6 ;
7 [label="mse = 0.0\nsamples = 1\nvalue = 137500.0", fillcolor="#fae9dc"] ;
6 -> 7 ;
8 [label="total_bedrooms <= -0.274\nmse = 16567500.0\nsamples = 4\nvalue = 164850.0", fillcolor="#f9e1d0"] ;
6 -> 8 ;
9 [label="mse = 0.0\nsamples = 3\nvalue = 162500.0", fillcolor="#f9e2d1"] ;
8 -> 9 ;
10 [label="mse = 0.0\nsamples = 1\nvalue = 171900.0", fillcolor="#f8dfcd"] ;
8 -> 10 ;
11 [label="latitude <= 1.035\nmse = 621124462.81\nsamples = 11\nvalue = 131590.909", fillcolor="#fbeadf"] ;
5 -> 11 ;
12 [label="longitude <= -1.345\nmse = 342003593.75\nsamples = 8\nvalue = 120012.5", fillcolor="#fbeee4"] ;
11 -> 12 ;
13 [label="total_bedrooms <= -0.479\nmse = 90205600.0\nsamples = 5\nvalue = 107520.0", fillcolor="#fcf1ea"] ;
12 -> 13 ;
14 [label="median_income <= -1.455\nmse = 1000000.0\nsamples = 2\nvalue = 96200.0", fillcolor="#fdf5ef"] ;
13 -> 14 ;
15 [label="mse = 0.0\nsamples = 1\nvalue = 95200.0", fillcolor="#fdf5ef"] ;
14 -> 15 ;
16 [label="mse = 0.0\nsamples = 1\nvalue = 97200.0", fillcolor="#fdf4ee"] ;
14 -> 16 ;
17 [label="population_per_household <= -0.126\nmse = 7295555.556\nsamples = 3\nvalue = 115066.667", fillcolor="#fcefe6"] ;
13 -> 17 ;
18 [label="mse = 0.0\nsamples = 1\nvalue = 118800.0", fillcolor="#fceee5"] ;
17 -> 18 ;
19 [label="mse = 490000.0\nsamples = 2\nvalue = 113200.0", fillcolor="#fcf0e7"] ;
17 -> 19 ;
20 [label="housing_median_age <= 1.141\nmse = 68055555.556\nsamples = 3\nvalue = 140833.333", fillcolor="#fae8db"] ;
12 -> 20 ;
21 [label="mse = 0.0\nsamples = 1\nvalue = 130000.0", fillcolor="#fbebe0"] ;
20 -> 21 ;
22 [label="population <= -0.758\nmse = 14062500.0\nsamples = 2\nvalue = 146250.0", fillcolor="#fae6d8"] ;
20 -> 22 ;
23 [label="mse = 0.0\nsamples = 1\nvalue = 150000.0", fillcolor="#fae5d7"] ;
22 -> 23 ;
24 [label="mse = 0.0\nsamples = 1\nvalue = 142500.0", fillcolor="#fae7da"] ;
22 -> 24 ;
25 [label="rooms_per_household <= -0.046\nmse = 54642222.222\nsamples = 3\nvalue = 162466.667", fillcolor="#f9e2d1"] ;
11 -> 25 ;
26 [label="rooms_per_household <= -0.513\nmse = 3422500.0\nsamples = 2\nvalue = 157350.0", fillcolor="#f9e3d3"] ;
25 -> 26 ;
27 [label="mse = 0.0\nsamples = 1\nvalue = 155500.0", fillcolor="#f9e4d4"] ;
26 -> 27 ;
28 [label="mse = 0.0\nsamples = 1\nvalue = 159200.0", fillcolor="#f9e3d2"] ;
26 -> 28 ;
29 [label="mse = 0.0\nsamples = 1\nvalue = 172700.0", fillcolor="#f8dfcc"] ;
25 -> 29 ;
30 [label="housing_median_age <= -0.725\nmse = 2082982422.145\nsamples = 17\nvalue = 194341.176", fillcolor="#f7d9c3"] ;
4 -> 30 ;
31 [label="mse = 0.0\nsamples = 1\nvalue = 83300.0", fillcolor="#fef8f5"] ;
30 -> 31 ;
32 [label="median_income <= -0.768\nmse = 1394370273.438\nsamples = 16\nvalue = 201281.25", fillcolor="#f7d7bf"] ;
30 -> 32 ;
33 [label="population <= -0.069\nmse = 829995041.322\nsamples = 11\nvalue = 185436.364", fillcolor="#f8dbc7"] ;
32 -> 33 ;
34 [label="rooms_per_bedroom <= -0.711\nmse = 454463600.0\nsamples = 10\nvalue = 178980.0", fillcolor="#f8ddc9"] ;
33 -> 34 ;
35 [label="rooms_per_bedroom <= -1.783\nmse = 252218888.889\nsamples = 6\nvalue = 165733.333", fillcolor="#f9e1cf"] ;
34 -> 35 ;
36 [label="mse = 0.0\nsamples = 1\nvalue = 193800.0", fillcolor="#f7d9c3"] ;
35 -> 36 ;
37 [label="mse = 113605600.0\nsamples = 5\nvalue = 160120.0", fillcolor="#f9e2d2"] ;
35 -> 37 ;
38 [label="longitude <= -1.31\nmse = 99802500.0\nsamples = 4\nvalue = 198850.0", fillcolor="#f7d7c1"] ;
34 -> 38 ;
39 [label="mse = 0.0\nsamples = 1\nvalue = 211500.0", fillcolor="#f6d4bb"] ;
38 -> 39 ;
40 [label="mse = 61948888.889\nsamples = 3\nvalue = 194633.333", fillcolor="#f7d8c2"] ;
38 -> 40 ;
41 [label="mse = 0.0\nsamples = 1\nvalue = 250000.0", fillcolor="#f4c9aa"] ;
33 -> 41 ;
42 [label="housing_median_age <= 0.982\nmse = 868530400.0\nsamples = 5\nvalue = 236140.0", fillcolor="#f5cdb0"] ;
32 -> 42 ;
43 [label="population_per_household <= -0.13\nmse = 446082500.0\nsamples = 4\nvalue = 247450.0", fillcolor="#f4c9ab"] ;
42 -> 43 ;
44 [label="housing_median_age <= 0.387\nmse = 100000000.0\nsamples = 2\nvalue = 228500.0", fillcolor="#f5cfb3"] ;
43 -> 44 ;
45 [label="mse = 0.0\nsamples = 1\nvalue = 218500.0", fillcolor="#f6d2b8"] ;
44 -> 45 ;
46 [label="mse = 0.0\nsamples = 1\nvalue = 238500.0", fillcolor="#f4ccaf"] ;
44 -> 46 ;
47 [label="households <= 0.508\nmse = 73960000.0\nsamples = 2\nvalue = 266400.0", fillcolor="#f3c4a2"] ;
43 -> 47 ;
48 [label="mse = 0.0\nsamples = 1\nvalue = 275000.0", fillcolor="#f2c19e"] ;
47 -> 48 ;
49 [label="mse = 0.0\nsamples = 1\nvalue = 257800.0", fillcolor="#f3c6a6"] ;
47 -> 49 ;
50 [label="mse = 0.0\nsamples = 1\nvalue = 190900.0", fillcolor="#f7dac4"] ;
42 -> 50 ;
51 [label="population_per_household <= -0.04\nmse = 667539246.078\nsamples = 127\nvalue = 109874.016", fillcolor="#fcf1e9"] ;
3 -> 51 ;
52 [label="longitude <= -1.355\nmse = 840579108.997\nsamples = 34\nvalue = 129102.941", fillcolor="#fbebe0"] ;
51 -> 52 ;
53 [label="households <= -0.863\nmse = 71402500.0\nsamples = 2\nvalue = 75950.0", fillcolor="#fefaf8"] ;
52 -> 53 ;
54 [label="mse = 0.0\nsamples = 1\nvalue = 67500.0", fillcolor="#fffdfc"] ;
53 -> 54 ;
55 [label="mse = 0.0\nsamples = 1\nvalue = 84400.0", fillcolor="#fef8f4"] ;
53 -> 55 ;
56 [label="rooms_per_household <= -0.468\nmse = 701039375.0\nsamples = 32\nvalue = 132425.0", fillcolor="#fbeade"] ;
52 -> 56 ;
57 [label="total_bedrooms <= -0.827\nmse = 592943801.653\nsamples = 11\nvalue = 147372.727", fillcolor="#fae6d8"] ;
56 -> 57 ;
58 [label="median_income <= -0.944\nmse = 182195555.556\nsamples = 3\nvalue = 116266.667", fillcolor="#fcefe6"] ;
57 -> 58 ;
59 [label="population <= -0.953\nmse = 640000.0\nsamples = 2\nvalue = 125800.0", fillcolor="#fbece1"] ;
58 -> 59 ;
60 [label="mse = 0.0\nsamples = 1\nvalue = 125000.0", fillcolor="#fbece2"] ;
59 -> 60 ;
61 [label="mse = 0.0\nsamples = 1\nvalue = 126600.0", fillcolor="#fbece1"] ;
59 -> 61 ;
62 [label="mse = 0.0\nsamples = 1\nvalue = 97200.0", fillcolor="#fdf4ee"] ;
58 -> 62 ;
63 [label="median_income <= -1.179\nmse = 248062343.75\nsamples = 8\nvalue = 159037.5", fillcolor="#f9e3d2"] ;
57 -> 63 ;
64 [label="longitude <= -1.34\nmse = 64802500.0\nsamples = 2\nvalue = 179450.0", fillcolor="#f8ddc9"] ;
63 -> 64 ;
65 [label="mse = 0.0\nsamples = 1\nvalue = 187500.0", fillcolor="#f7dac6"] ;
64 -> 65 ;
66 [label="mse = 0.0\nsamples = 1\nvalue = 171400.0", fillcolor="#f8dfcd"] ;
64 -> 66 ;
67 [label="rooms_per_bedroom <= -0.87\nmse = 123962222.222\nsamples = 6\nvalue = 152233.333", fillcolor="#fae5d5"] ;
63 -> 67 ;
68 [label="mse = 38886666.667\nsamples = 3\nvalue = 143100.0", fillcolor="#fae7da"] ;
67 -> 68 ;
69 [label="mse = 42202222.222\nsamples = 3\nvalue = 161366.667", fillcolor="#f9e2d1"] ;
67 -> 69 ;
70 [label="latitude <= 1.035\nmse = 579318548.753\nsamples = 21\nvalue = 124595.238", fillcolor="#fbede2"] ;
56 -> 70 ;
71 [label="longitude <= -1.285\nmse = 435600946.746\nsamples = 13\nvalue = 114453.846", fillcolor="#fcefe6"] ;
70 -> 71 ;
72 [label="total_bedrooms <= -0.788\nmse = 219780833.333\nsamples = 12\nvalue = 110050.0", fillcolor="#fcf1e8"] ;
71 -> 72 ;
73 [label="mse = 122500.0\nsamples = 2\nvalue = 131650.0", fillcolor="#fbeadf"] ;
72 -> 73 ;
74 [label="mse = 151738100.0\nsamples = 10\nvalue = 105730.0", fillcolor="#fcf2ea"] ;
72 -> 74 ;
75 [label="mse = 0.0\nsamples = 1\nvalue = 167300.0", fillcolor="#f9e0cf"] ;
71 -> 75 ;
76 [label="median_income <= -0.795\nmse = 374149375.0\nsamples = 8\nvalue = 141075.0", fillcolor="#fae8db"] ;
70 -> 76 ;
77 [label="rooms_per_household <= -0.394\nmse = 62713469.388\nsamples = 7\nvalue = 147828.571", fillcolor="#fae6d7"] ;
76 -> 77 ;
78 [label="mse = 22090000.0\nsamples = 2\nvalue = 137600.0", fillcolor="#fae9dc"] ;
77 -> 78 ;
79 [label="mse = 20373600.0\nsamples = 5\nvalue = 151920.0", fillcolor="#fae5d6"] ;
77 -> 79 ;
80 [label="mse = 0.0\nsamples = 1\nvalue = 93800.0", fillcolor="#fdf5f0"] ;
76 -> 80 ;
81 [label="longitude <= -1.282\nmse = 419679454.272\nsamples = 93\nvalue = 102844.086", fillcolor="#fcf3ec"] ;
51 -> 81 ;
82 [label="latitude <= 1.003\nmse = 329809748.769\nsamples = 89\nvalue = 100762.921", fillcolor="#fdf3ed"] ;
81 -> 82 ;
83 [label="total_rooms <= 0.058\nmse = 150120298.778\nsamples = 47\nvalue = 91427.66", fillcolor="#fdf6f1"] ;
82 -> 83 ;
84 [label="total_bedrooms <= -0.524\nmse = 62256869.136\nsamples = 45\nvalue = 90204.444", fillcolor="#fdf6f1"] ;
83 -> 84 ;
85 [label="longitude <= -1.3\nmse = 57542544.379\nsamples = 26\nvalue = 86976.923", fillcolor="#fdf7f3"] ;
84 -> 85 ;
86 [label="mse = 38969413.58\nsamples = 18\nvalue = 83994.444", fillcolor="#fef8f4"] ;
85 -> 86 ;
87 [label="mse = 34286093.75\nsamples = 8\nvalue = 93687.5", fillcolor="#fdf5f0"] ;
85 -> 87 ;
88 [label="median_income <= -0.958\nmse = 34946925.208\nsamples = 19\nvalue = 94621.053", fillcolor="#fdf5ef"] ;
84 -> 88 ;
89 [label="mse = 23022500.0\nsamples = 10\nvalue = 90850.0", fillcolor="#fdf6f1"] ;
88 -> 89 ;
90 [label="mse = 14838765.432\nsamples = 9\nvalue = 98811.111", fillcolor="#fdf4ee"] ;
88 -> 90 ;
91 [label="total_rooms <= 0.362\nmse = 1335902500.0\nsamples = 2\nvalue = 118950.0", fillcolor="#fceee4"] ;
83 -> 91 ;
92 [label="mse = 0.0\nsamples = 1\nvalue = 155500.0", fillcolor="#f9e4d4"] ;
91 -> 92 ;
93 [label="mse = 0.0\nsamples = 1\nvalue = 82400.0", fillcolor="#fef9f5"] ;
91 -> 93 ;
94 [label="latitude <= 1.017\nmse = 324237528.345\nsamples = 42\nvalue = 111209.524", fillcolor="#fcf0e8"] ;
82 -> 94 ;
95 [label="housing_median_age <= 1.816\nmse = 243729408.284\nsamples = 26\nvalue = 119253.846", fillcolor="#fbeee4"] ;
94 -> 95 ;
96 [label="housing_median_age <= 0.744\nmse = 111284100.0\nsamples = 20\nvalue = 113370.0", fillcolor="#fcf0e7"] ;
95 -> 96 ;
97 [label="mse = 32006875.0\nsamples = 4\nvalue = 124225.0", fillcolor="#fbede2"] ;
96 -> 97 ;
98 [label="mse = 94281210.938\nsamples = 16\nvalue = 110656.25", fillcolor="#fcf0e8"] ;
96 -> 98 ;
99 [label="population <= -0.472\nmse = 185152222.222\nsamples = 6\nvalue = 138866.667", fillcolor="#fae8dc"] ;
95 -> 99 ;
100 [label="mse = 60840000.0\nsamples = 2\nvalue = 154700.0", fillcolor="#f9e4d4"] ;
99 -> 100 ;
101 [label="mse = 59287500.0\nsamples = 4\nvalue = 130950.0", fillcolor="#fbebdf"] ;
99 -> 101 ;
102 [label="longitude <= -1.355\nmse = 179029843.75\nsamples = 16\nvalue = 98137.5", fillcolor="#fdf4ee"] ;
94 -> 102 ;
103 [label="housing_median_age <= -0.328\nmse = 177844000.0\nsamples = 5\nvalue = 86900.0", fillcolor="#fdf7f3"] ;
102 -> 103 ;
104 [label="mse = 0.0\nsamples = 1\nvalue = 112500.0", fillcolor="#fcf0e7"] ;
103 -> 104 ;
105 [label="mse = 17505000.0\nsamples = 4\nvalue = 80500.0", fillcolor="#fef9f6"] ;
103 -> 105 ;
106 [label="median_income <= -1.531\nmse = 96077024.793\nsamples = 11\nvalue = 103245.455", fillcolor="#fcf3ec"] ;
102 -> 106 ;
107 [label="mse = 0.0\nsamples = 1\nvalue = 85300.0", fillcolor="#fef8f4"] ;
106 -> 107 ;
108 [label="mse = 70260400.0\nsamples = 10\nvalue = 105040.0", fillcolor="#fcf2eb"] ;
106 -> 108 ;
109 [label="housing_median_age <= -0.169\nmse = 178672500.0\nsamples = 4\nvalue = 149150.0", fillcolor="#fae5d7"] ;
81 -> 109 ;
110 [label="total_bedrooms <= 0.554\nmse = 1690000.0\nsamples = 2\nvalue = 136200.0", fillcolor="#fae9dd"] ;
109 -> 110 ;
111 [label="mse = 0.0\nsamples = 1\nvalue = 137500.0", fillcolor="#fae9dc"] ;
110 -> 111 ;
112 [label="mse = 0.0\nsamples = 1\nvalue = 134900.0", fillcolor="#fbeadd"] ;
110 -> 112 ;
113 [label="longitude <= -1.25\nmse = 20250000.0\nsamples = 2\nvalue = 162100.0", fillcolor="#f9e2d1"] ;
109 -> 113 ;
114 [label="mse = 0.0\nsamples = 1\nvalue = 166600.0", fillcolor="#f9e0cf"] ;
113 -> 114 ;
115 [label="mse = 0.0\nsamples = 1\nvalue = 157600.0", fillcolor="#f9e3d3"] ;
113 -> 115 ;
116 [label="longitude <= -1.34\nmse = 7750572677.143\nsamples = 21\nvalue = 223081.0", fillcolor="#f5d0b6"] ;
2 -> 116 ;
117 [label="longitude <= -1.35\nmse = 2341968672.84\nsamples = 18\nvalue = 194327.778", fillcolor="#f7d9c3"] ;
116 -> 117 ;
118 [label="rooms_per_bedroom <= -0.959\nmse = 250544000.0\nsamples = 10\nvalue = 158500.0", fillcolor="#f9e3d3"] ;
117 -> 118 ;
119 [label="total_bedrooms <= -0.453\nmse = 47610000.0\nsamples = 2\nvalue = 180600.0", fillcolor="#f8dcc9"] ;
118 -> 119 ;
120 [label="mse = 0.0\nsamples = 1\nvalue = 187500.0", fillcolor="#f7dac6"] ;
119 -> 120 ;
121 [label="mse = 0.0\nsamples = 1\nvalue = 173700.0", fillcolor="#f8decc"] ;
119 -> 121 ;
122 [label="population_per_household <= -0.099\nmse = 148649375.0\nsamples = 8\nvalue = 152975.0", fillcolor="#fae4d5"] ;
118 -> 122 ;
123 [label="mse = 0.0\nsamples = 1\nvalue = 182300.0", fillcolor="#f8dcc8"] ;
122 -> 123 ;
124 [label="rooms_per_bedroom <= -0.716\nmse = 29484081.633\nsamples = 7\nvalue = 148785.714", fillcolor="#fae6d7"] ;
122 -> 124 ;
125 [label="housing_median_age <= 1.776\nmse = 6906666.667\nsamples = 3\nvalue = 153500.0", fillcolor="#f9e4d5"] ;
124 -> 125 ;
126 [label="population_per_household <= -0.077\nmse = 1690000.0\nsamples = 2\nvalue = 151800.0", fillcolor="#fae5d6"] ;
125 -> 126 ;
127 [label="mse = 0.0\nsamples = 1\nvalue = 153100.0", fillcolor="#f9e4d5"] ;
126 -> 127 ;
128 [label="mse = 0.0\nsamples = 1\nvalue = 150500.0", fillcolor="#fae5d6"] ;
126 -> 128 ;
129 [label="mse = 0.0\nsamples = 1\nvalue = 156900.0", fillcolor="#f9e3d3"] ;
125 -> 129 ;
130 [label="population <= -1.065\nmse = 17247500.0\nsamples = 4\nvalue = 145250.0", fillcolor="#fae7d9"] ;
124 -> 130 ;
131 [label="mse = 0.0\nsamples = 1\nvalue = 138800.0", fillcolor="#fae8dc"] ;
130 -> 131 ;
132 [label="median_income <= -0.882\nmse = 4506666.667\nsamples = 3\nvalue = 147400.0", fillcolor="#fae6d8"] ;
130 -> 132 ;
133 [label="mse = 1690000.0\nsamples = 2\nvalue = 148700.0", fillcolor="#fae6d7"] ;
132 -> 133 ;
134 [label="mse = 0.0\nsamples = 1\nvalue = 144800.0", fillcolor="#fae7d9"] ;
132 -> 134 ;
135 [label="total_rooms <= -0.623\nmse = 1346041093.75\nsamples = 8\nvalue = 239112.5", fillcolor="#f4ccae"] ;
117 -> 135 ;
136 [label="mse = 0.0\nsamples = 1\nvalue = 175000.0", fillcolor="#f8decb"] ;
135 -> 136 ;
137 [label="rooms_per_bedroom <= -1.142\nmse = 867244897.959\nsamples = 7\nvalue = 248271.429", fillcolor="#f4c9aa"] ;
135 -> 137 ;
138 [label="rooms_per_bedroom <= -1.752\nmse = 524284722.222\nsamples = 6\nvalue = 256616.667", fillcolor="#f3c7a7"] ;
137 -> 138 ;
139 [label="population_per_household <= -0.127\nmse = 156250000.0\nsamples = 2\nvalue = 229200.0", fillcolor="#f5cfb3"] ;
138 -> 139 ;
140 [label="mse = 0.0\nsamples = 1\nvalue = 216700.0", fillcolor="#f6d2b8"] ;
139 -> 140 ;
141 [label="mse = 0.0\nsamples = 1\nvalue = 241700.0", fillcolor="#f4cbad"] ;
139 -> 141 ;
142 [label="population_per_household <= -0.085\nmse = 144546875.0\nsamples = 4\nvalue = 270325.0", fillcolor="#f3c3a0"] ;
138 -> 142 ;
143 [label="median_income <= -1.141\nmse = 61626666.667\nsamples = 3\nvalue = 264600.0", fillcolor="#f3c4a3"] ;
142 -> 143 ;
144 [label="mse = 0.0\nsamples = 1\nvalue = 253600.0", fillcolor="#f4c8a8"] ;
143 -> 144 ;
145 [label="mse = 1690000.0\nsamples = 2\nvalue = 270100.0", fillcolor="#f3c3a0"] ;
143 -> 145 ;
146 [label="mse = 0.0\nsamples = 1\nvalue = 287500.0", fillcolor="#f2be99"] ;
142 -> 146 ;
147 [label="mse = 0.0\nsamples = 1\nvalue = 198200.0", fillcolor="#f7d7c1"] ;
137 -> 147 ;
148 [label="rooms_per_bedroom <= -2.036\nmse = 5478789600.222\nsamples = 3\nvalue = 395600.333", fillcolor="#eb9f68"] ;
116 -> 148 ;
149 [label="mse = 0.0\nsamples = 1\nvalue = 500001.0", fillcolor="#e58139"] ;
148 -> 149 ;
150 [label="latitude <= 1.045\nmse = 43560000.0\nsamples = 2\nvalue = 343400.0", fillcolor="#eeae7f"] ;
148 -> 150 ;
151 [label="mse = 0.0\nsamples = 1\nvalue = 336800.0", fillcolor="#efb082"] ;
150 -> 151 ;
152 [label="mse = 0.0\nsamples = 1\nvalue = 350000.0", fillcolor="#eeac7d"] ;
150 -> 152 ;
153 [label="population_per_household <= -0.059\nmse = 2790727493.814\nsamples = 396\nvalue = 194360.354", fillcolor="#f7d9c3"] ;
1 -> 153 ;
154 [label="rooms_per_household <= 0.236\nmse = 2455368969.133\nsamples = 179\nvalue = 216094.972", fillcolor="#f6d2b9"] ;
153 -> 154 ;
155 [label="total_rooms <= -0.898\nmse = 2061459618.179\nsamples = 174\nvalue = 213080.46", fillcolor="#f6d3ba"] ;
154 -> 155 ;
156 [label="population <= -1.12\nmse = 909904000.0\nsamples = 5\nvalue = 116800.0", fillcolor="#fcefe5"] ;
155 -> 156 ;
157 [label="mse = 0.0\nsamples = 1\nvalue = 60000.0", fillcolor="#ffffff"] ;
156 -> 157 ;
158 [label="population_per_household <= -0.085\nmse = 129180000.0\nsamples = 4\nvalue = 131000.0", fillcolor="#fbebdf"] ;
156 -> 158 ;
159 [label="median_income <= -0.598\nmse = 90000.0\nsamples = 2\nvalue = 119700.0", fillcolor="#fbeee4"] ;
158 -> 159 ;
160 [label="mse = 0.0\nsamples = 1\nvalue = 120000.0", fillcolor="#fbeee4"] ;
159 -> 160 ;
161 [label="mse = 0.0\nsamples = 1\nvalue = 119400.0", fillcolor="#fbeee4"] ;
159 -> 161 ;
162 [label="housing_median_age <= 1.776\nmse = 2890000.0\nsamples = 2\nvalue = 142300.0", fillcolor="#fae7da"] ;
158 -> 162 ;
163 [label="mse = 0.0\nsamples = 1\nvalue = 140600.0", fillcolor="#fae8db"] ;
162 -> 163 ;
164 [label="mse = 0.0\nsamples = 1\nvalue = 144000.0", fillcolor="#fae7d9"] ;
162 -> 164 ;
165 [label="longitude <= -1.305\nmse = 1813156969.994\nsamples = 169\nvalue = 215928.994", fillcolor="#f6d2b9"] ;
155 -> 165 ;
166 [label="households <= 2.35\nmse = 1944548803.846\nsamples = 103\nvalue = 228860.194", fillcolor="#f5cfb3"] ;
165 -> 166 ;
167 [label="median_income <= -0.502\nmse = 1704909584.0\nsamples = 100\nvalue = 226096.0", fillcolor="#f5cfb4"] ;
166 -> 167 ;
168 [label="population_per_household <= -0.109\nmse = 2316001734.694\nsamples = 28\nvalue = 200942.857", fillcolor="#f7d7c0"] ;
167 -> 168 ;
169 [label="population_per_household <= -0.141\nmse = 1940334214.876\nsamples = 11\nvalue = 238418.182", fillcolor="#f4ccaf"] ;
168 -> 169 ;
170 [label="mse = 0.0\nsamples = 1\nvalue = 350000.0", fillcolor="#eeac7d"] ;
169 -> 170 ;
171 [label="mse = 764812400.0\nsamples = 10\nvalue = 227260.0", fillcolor="#f5cfb4"] ;
169 -> 171 ;
172 [label="population_per_household <= -0.07\nmse = 1062349965.398\nsamples = 17\nvalue = 176694.118", fillcolor="#f8deca"] ;
168 -> 172 ;
173 [label="mse = 655870208.333\nsamples = 12\nvalue = 189725.0", fillcolor="#f7dac5"] ;
172 -> 173 ;
174 [label="mse = 652301600.0\nsamples = 5\nvalue = 145420.0", fillcolor="#fae7d9"] ;
172 -> 174 ;
175 [label="rooms_per_bedroom <= -1.49\nmse = 1125537006.173\nsamples = 72\nvalue = 235877.778", fillcolor="#f5cdb0"] ;
167 -> 175 ;
176 [label="mse = 0.0\nsamples = 1\nvalue = 100000.0", fillcolor="#fdf4ed"] ;
175 -> 176 ;
177 [label="total_rooms <= -0.286\nmse = 877688097.6\nsamples = 71\nvalue = 237791.549", fillcolor="#f4ccaf"] ;
175 -> 177 ;
178 [label="mse = 884237955.556\nsamples = 30\nvalue = 222993.333", fillcolor="#f5d0b6"] ;
177 -> 178 ;
179 [label="mse = 595416204.64\nsamples = 41\nvalue = 248619.512", fillcolor="#f4c9aa"] ;
177 -> 179 ;
180 [label="population <= 1.06\nmse = 1188086666.667\nsamples = 3\nvalue = 321000.0", fillcolor="#f0b48a"] ;
166 -> 180 ;
181 [label="mse = 0.0\nsamples = 1\nvalue = 273400.0", fillcolor="#f2c29f"] ;
180 -> 181 ;
182 [label="rooms_per_bedroom <= -1.048\nmse = 82810000.0\nsamples = 2\nvalue = 344800.0", fillcolor="#eead7f"] ;
180 -> 182 ;
183 [label="mse = 0.0\nsamples = 1\nvalue = 335700.0", fillcolor="#efb083"] ;
182 -> 183 ;
184 [label="mse = 0.0\nsamples = 1\nvalue = 353900.0", fillcolor="#eeab7b"] ;
182 -> 184 ;
185 [label="rooms_per_bedroom <= -1.446\nmse = 939894921.947\nsamples = 66\nvalue = 195748.485", fillcolor="#f7d8c2"] ;
165 -> 185 ;
186 [label="median_income <= -0.388\nmse = 285610000.0\nsamples = 2\nvalue = 254400.0", fillcolor="#f4c7a8"] ;
185 -> 186 ;
187 [label="mse = 0.0\nsamples = 1\nvalue = 237500.0", fillcolor="#f5ccaf"] ;
186 -> 187 ;
188 [label="mse = 0.0\nsamples = 1\nvalue = 271300.0", fillcolor="#f3c2a0"] ;
186 -> 188 ;
189 [label="longitude <= -1.29\nmse = 849481943.359\nsamples = 64\nvalue = 193915.625", fillcolor="#f7d9c3"] ;
185 -> 189 ;
190 [label="total_bedrooms <= 0.069\nmse = 478976000.0\nsamples = 10\nvalue = 172100.0", fillcolor="#f8dfcd"] ;
189 -> 190 ;
191 [label="median_income <= 0.0\nmse = 200139375.0\nsamples = 8\nvalue = 181025.0", fillcolor="#f8dcc9"] ;
190 -> 191 ;
192 [label="mse = 69664722.222\nsamples = 6\nvalue = 174083.333", fillcolor="#f8decc"] ;
191 -> 192 ;
193 [label="mse = 13322500.0\nsamples = 2\nvalue = 201850.0", fillcolor="#f7d6bf"] ;
191 -> 193 ;
194 [label="longitude <= -1.295\nmse = 1210000.0\nsamples = 2\nvalue = 136400.0", fillcolor="#fae9dd"] ;
190 -> 194 ;
195 [label="mse = 0.0\nsamples = 1\nvalue = 135300.0", fillcolor="#fbe9dd"] ;
194 -> 195 ;
196 [label="mse = 0.0\nsamples = 1\nvalue = 137500.0", fillcolor="#fae9dc"] ;
194 -> 196 ;
197 [label="rooms_per_household <= -0.56\nmse = 813639506.173\nsamples = 54\nvalue = 197955.556", fillcolor="#f7d7c1"] ;
189 -> 197 ;
198 [label="population_per_household <= -0.099\nmse = 104624722.222\nsamples = 6\nvalue = 167016.667", fillcolor="#f9e0cf"] ;
197 -> 198 ;
199 [label="mse = 2722500.0\nsamples = 2\nvalue = 180050.0", fillcolor="#f8ddc9"] ;
198 -> 199 ;
200 [label="mse = 28175000.0\nsamples = 4\nvalue = 160500.0", fillcolor="#f9e2d2"] ;
198 -> 200 ;
201 [label="rooms_per_household <= -0.468\nmse = 767658016.493\nsamples = 48\nvalue = 201822.917", fillcolor="#f7d6bf"] ;
197 -> 201 ;
202 [label="mse = 962257500.0\nsamples = 8\nvalue = 224600.0", fillcolor="#f5d0b5"] ;
201 -> 202 ;
203 [label="mse = 604227193.75\nsamples = 40\nvalue = 197267.5", fillcolor="#f7d8c1"] ;
201 -> 203 ;
204 [label="population_per_household <= -0.066\nmse = 4842112000.0\nsamples = 5\nvalue = 321000.0", fillcolor="#f0b48a"] ;
154 -> 204 ;
205 [label="latitude <= 1.026\nmse = 2595448888.889\nsamples = 3\nvalue = 274866.667", fillcolor="#f2c19e"] ;
204 -> 205 ;
206 [label="longitude <= -1.297\nmse = 492840000.0\nsamples = 2\nvalue = 241200.0", fillcolor="#f4cbad"] ;
205 -> 206 ;
207 [label="mse = 0.0\nsamples = 1\nvalue = 263400.0", fillcolor="#f3c5a3"] ;
206 -> 207 ;
208 [label="mse = 0.0\nsamples = 1\nvalue = 219000.0", fillcolor="#f6d1b7"] ;
206 -> 208 ;
209 [label="mse = 0.0\nsamples = 1\nvalue = 342200.0", fillcolor="#eeae80"] ;
205 -> 209 ;
210 [label="OneHot_encoder_4 <= 0.5\nmse = 231040000.0\nsamples = 2\nvalue = 390200.0", fillcolor="#eba06a"] ;
204 -> 210 ;
211 [label="mse = 0.0\nsamples = 1\nvalue = 375000.0", fillcolor="#eca571"] ;
210 -> 211 ;
212 [label="mse = 0.0\nsamples = 1\nvalue = 405400.0", fillcolor="#eb9c64"] ;
210 -> 212 ;
213 [label="latitude <= 1.038\nmse = 2356256177.876\nsamples = 217\nvalue = 176431.797", fillcolor="#f8decb"] ;
153 -> 213 ;
214 [label="latitude <= 0.979\nmse = 1636661930.774\nsamples = 211\nvalue = 173250.711", fillcolor="#f8dfcc"] ;
213 -> 214 ;
215 [label="median_income <= -0.02\nmse = 761855749.374\nsamples = 137\nvalue = 187609.489", fillcolor="#f7dac6"] ;
214 -> 215 ;
216 [label="rooms_per_bedroom <= -0.252\nmse = 380584156.213\nsamples = 65\nvalue = 172972.308", fillcolor="#f8dfcc"] ;
215 -> 216 ;
217 [label="households <= 1.901\nmse = 347294872.169\nsamples = 37\nvalue = 165716.216", fillcolor="#f9e1cf"] ;
216 -> 217 ;
218 [label="median_income <= -0.429\nmse = 270316751.543\nsamples = 36\nvalue = 164186.111", fillcolor="#f9e1d0"] ;
217 -> 218 ;
219 [label="rooms_per_household <= -0.173\nmse = 91116094.675\nsamples = 13\nvalue = 154992.308", fillcolor="#f9e4d4"] ;
218 -> 219 ;
220 [label="mse = 27385833.333\nsamples = 12\nvalue = 152650.0", fillcolor="#fae4d5"] ;
219 -> 220 ;
221 [label="mse = 0.0\nsamples = 1\nvalue = 183100.0", fillcolor="#f8dcc8"] ;
219 -> 221 ;
222 [label="households <= -0.274\nmse = 296824914.934\nsamples = 23\nvalue = 169382.609", fillcolor="#f9e0ce"] ;
218 -> 222 ;
223 [label="mse = 121379600.0\nsamples = 10\nvalue = 158380.0", fillcolor="#f9e3d3"] ;
222 -> 223 ;
224 [label="mse = 267030177.515\nsamples = 13\nvalue = 177846.154", fillcolor="#f8ddca"] ;
222 -> 224 ;
225 [label="mse = 0.0\nsamples = 1\nvalue = 220800.0", fillcolor="#f5d1b7"] ;
217 -> 225 ;
226 [label="housing_median_age <= 0.387\nmse = 263061670.918\nsamples = 28\nvalue = 182560.714", fillcolor="#f8dcc8"] ;
216 -> 226 ;
227 [label="longitude <= -1.257\nmse = 119082500.0\nsamples = 8\nvalue = 199150.0", fillcolor="#f7d7c0"] ;
226 -> 227 ;
228 [label="population_per_household <= -0.034\nmse = 37295555.556\nsamples = 3\nvalue = 187966.667", fillcolor="#f7dac5"] ;
227 -> 228 ;
229 [label="mse = 0.0\nsamples = 1\nvalue = 195800.0", fillcolor="#f7d8c2"] ;
228 -> 229 ;
230 [label="mse = 9922500.0\nsamples = 2\nvalue = 184050.0", fillcolor="#f8dbc7"] ;
228 -> 230 ;
231 [label="median_income <= -0.247\nmse = 48090400.0\nsamples = 5\nvalue = 205860.0", fillcolor="#f6d5bd"] ;
227 -> 231 ;
232 [label="mse = 0.0\nsamples = 1\nvalue = 193200.0", fillcolor="#f7d9c3"] ;
231 -> 232 ;
233 [label="mse = 10026875.0\nsamples = 4\nvalue = 209025.0", fillcolor="#f6d4bc"] ;
231 -> 233 ;
234 [label="population_per_household <= 0.02\nmse = 166538875.0\nsamples = 20\nvalue = 175925.0", fillcolor="#f8decb"] ;
226 -> 234 ;
235 [label="rooms_per_household <= -0.246\nmse = 112144266.667\nsamples = 15\nvalue = 180980.0", fillcolor="#f8dcc9"] ;
234 -> 235 ;
236 [label="mse = 360000.0\nsamples = 2\nvalue = 160300.0", fillcolor="#f9e2d2"] ;
235 -> 236 ;
237 [label="mse = 53425443.787\nsamples = 13\nvalue = 184161.538", fillcolor="#f8dbc7"] ;
235 -> 237 ;
238 [label="housing_median_age <= 0.625\nmse = 23086400.0\nsamples = 5\nvalue = 160760.0", fillcolor="#f9e2d2"] ;
234 -> 238 ;
239 [label="mse = 2560000.0\nsamples = 2\nvalue = 166500.0", fillcolor="#f9e1cf"] ;
238 -> 239 ;
240 [label="mse = 162222.222\nsamples = 3\nvalue = 156933.333", fillcolor="#f9e3d3"] ;
238 -> 240 ;
241 [label="total_rooms <= 0.393\nmse = 738028748.071\nsamples = 72\nvalue = 200823.611", fillcolor="#f7d7c0"] ;
215 -> 241 ;
242 [label="rooms_per_household <= -0.083\nmse = 507187887.603\nsamples = 55\nvalue = 192858.182", fillcolor="#f7d9c3"] ;
241 -> 242 ;
243 [label="total_bedrooms <= 0.366\nmse = 254371111.111\nsamples = 18\nvalue = 178433.333", fillcolor="#f8ddca"] ;
242 -> 243 ;
244 [label="population_per_household <= 0.044\nmse = 147286782.007\nsamples = 17\nvalue = 175829.412", fillcolor="#f8decb"] ;
243 -> 244 ;
245 [label="mse = 109905917.16\nsamples = 13\nvalue = 179815.385", fillcolor="#f8ddc9"] ;
244 -> 245 ;
246 [label="mse = 49321875.0\nsamples = 4\nvalue = 162875.0", fillcolor="#f9e2d1"] ;
244 -> 246 ;
247 [label="mse = 0.0\nsamples = 1\nvalue = 222700.0", fillcolor="#f5d0b6"] ;
243 -> 247 ;
248 [label="housing_median_age <= 0.545\nmse = 479708327.246\nsamples = 37\nvalue = 199875.676", fillcolor="#f7d7c0"] ;
242 -> 248 ;
249 [label="total_rooms <= 0.347\nmse = 494004598.765\nsamples = 18\nvalue = 209361.111", fillcolor="#f6d4bc"] ;
248 -> 249 ;
250 [label="mse = 313822076.125\nsamples = 17\nvalue = 212770.588", fillcolor="#f6d3ba"] ;
249 -> 250 ;
251 [label="mse = 0.0\nsamples = 1\nvalue = 151400.0", fillcolor="#fae5d6"] ;
249 -> 251 ;
252 [label="median_income <= 0.372\nmse = 300174626.039\nsamples = 19\nvalue = 190889.474", fillcolor="#f7dac4"] ;
248 -> 252 ;
253 [label="mse = 219660895.062\nsamples = 18\nvalue = 188627.778", fillcolor="#f7dac5"] ;
252 -> 253 ;
254 [label="mse = 0.0\nsamples = 1\nvalue = 231600.0", fillcolor="#f5ceb2"] ;
252 -> 254 ;
255 [label="population <= 0.287\nmse = 615474671.28\nsamples = 17\nvalue = 226594.118", fillcolor="#f5cfb4"] ;
241 -> 255 ;
256 [label="total_rooms <= 0.445\nmse = 539948888.889\nsamples = 3\nvalue = 260733.333", fillcolor="#f3c6a5"] ;
255 -> 256 ;
257 [label="rooms_per_household <= 0.115\nmse = 19360000.0\nsamples = 2\nvalue = 244500.0", fillcolor="#f4caac"] ;
256 -> 257 ;
258 [label="mse = 0.0\nsamples = 1\nvalue = 240100.0", fillcolor="#f4cbae"] ;
257 -> 258 ;
259 [label="mse = 0.0\nsamples = 1\nvalue = 248900.0", fillcolor="#f4c9aa"] ;
257 -> 259 ;
260 [label="mse = 0.0\nsamples = 1\nvalue = 293200.0", fillcolor="#f1bc96"] ;
256 -> 260 ;
261 [label="latitude <= 0.916\nmse = 328394540.816\nsamples = 14\nvalue = 219278.571", fillcolor="#f6d1b7"] ;
255 -> 261 ;
262 [label="median_income <= 0.37\nmse = 82997142.857\nsamples = 7\nvalue = 232800.0", fillcolor="#f5ceb1"] ;
261 -> 262 ;
263 [label="mse = 41246400.0\nsamples = 5\nvalue = 228340.0", fillcolor="#f5cfb3"] ;
262 -> 263 ;
264 [label="mse = 13322500.0\nsamples = 2\nvalue = 243950.0", fillcolor="#f4caac"] ;
262 -> 264 ;
265 [label="households <= 0.585\nmse = 208133877.551\nsamples = 7\nvalue = 205757.143", fillcolor="#f6d5bd"] ;
261 -> 265 ;
266 [label="mse = 3375555.556\nsamples = 3\nvalue = 218766.667", fillcolor="#f6d2b8"] ;
265 -> 266 ;
267 [label="mse = 139565000.0\nsamples = 4\nvalue = 196000.0", fillcolor="#f7d8c2"] ;
265 -> 267 ;
268 [label="population_per_household <= -0.031\nmse = 2167870569.759\nsamples = 74\nvalue = 146667.568", fillcolor="#fae6d8"] ;
214 -> 268 ;
269 [label="longitude <= -1.31\nmse = 1759046254.459\nsamples = 29\nvalue = 174582.759", fillcolor="#f8decb"] ;
268 -> 269 ;
270 [label="rooms_per_household <= 0.038\nmse = 944771715.976\nsamples = 13\nvalue = 204753.846", fillcolor="#f6d6be"] ;
269 -> 270 ;
271 [label="latitude <= 1.01\nmse = 432115371.901\nsamples = 11\nvalue = 195490.909", fillcolor="#f7d8c2"] ;
270 -> 271 ;
272 [label="households <= -0.688\nmse = 102658367.347\nsamples = 7\nvalue = 206585.714", fillcolor="#f6d5bd"] ;
271 -> 272 ;
273 [label="mse = 24148888.889\nsamples = 3\nvalue = 196266.667", fillcolor="#f7d8c2"] ;
272 -> 273 ;
274 [label="mse = 21781875.0\nsamples = 4\nvalue = 214325.0", fillcolor="#f6d3ba"] ;
272 -> 274 ;
275 [label="total_rooms <= -0.278\nmse = 416271875.0\nsamples = 4\nvalue = 176075.0", fillcolor="#f8decb"] ;
271 -> 275 ;
276 [label="mse = 35402500.0\nsamples = 2\nvalue = 156950.0", fillcolor="#f9e3d3"] ;
275 -> 276 ;
277 [label="mse = 65610000.0\nsamples = 2\nvalue = 195200.0", fillcolor="#f7d8c2"] ;
275 -> 277 ;
278 [label="total_rooms <= -0.237\nmse = 696960000.0\nsamples = 2\nvalue = 255700.0", fillcolor="#f3c7a7"] ;
270 -> 278 ;
279 [label="mse = 0.0\nsamples = 1\nvalue = 282100.0", fillcolor="#f2bf9b"] ;
278 -> 279 ;
280 [label="mse = 0.0\nsamples = 1\nvalue = 229300.0", fillcolor="#f5cfb3"] ;
278 -> 280 ;
281 [label="rooms_per_bedroom <= 0.649\nmse = 1080093398.438\nsamples = 16\nvalue = 150068.75", fillcolor="#fae5d6"] ;
269 -> 281 ;
282 [label="latitude <= 1.003\nmse = 483673928.571\nsamples = 14\nvalue = 140750.0", fillcolor="#fae8db"] ;
281 -> 282 ;
283 [label="rooms_per_household <= -0.237\nmse = 268447343.75\nsamples = 8\nvalue = 127437.5", fillcolor="#fbece1"] ;
282 -> 283 ;
284 [label="mse = 142415555.556\nsamples = 3\nvalue = 110633.333", fillcolor="#fcf1e8"] ;
283 -> 284 ;
285 [label="mse = 72981600.0\nsamples = 5\nvalue = 137520.0", fillcolor="#fae9dc"] ;
283 -> 285 ;
286 [label="housing_median_age <= 1.657\nmse = 219283333.333\nsamples = 6\nvalue = 158500.0", fillcolor="#f9e3d3"] ;
282 -> 286 ;
287 [label="mse = 2500.0\nsamples = 2\nvalue = 140550.0", fillcolor="#fae8db"] ;
286 -> 287 ;
288 [label="mse = 87271875.0\nsamples = 4\nvalue = 167475.0", fillcolor="#f9e0cf"] ;
286 -> 288 ;
289 [label="latitude <= 0.986\nmse = 392040000.0\nsamples = 2\nvalue = 215300.0", fillcolor="#f6d3b9"] ;
281 -> 289 ;
290 [label="mse = 0.0\nsamples = 1\nvalue = 235100.0", fillcolor="#f5cdb0"] ;
289 -> 290 ;
291 [label="mse = 0.0\nsamples = 1\nvalue = 195500.0", fillcolor="#f7d8c2"] ;
289 -> 291 ;
292 [label="households <= 0.708\nmse = 1605514172.84\nsamples = 45\nvalue = 128677.778", fillcolor="#fbebe0"] ;
268 -> 292 ;
293 [label="rooms_per_bedroom <= -0.358\nmse = 1144348858.471\nsamples = 44\nvalue = 125352.273", fillcolor="#fbece2"] ;
292 -> 293 ;
294 [label="population <= -0.687\nmse = 532017500.0\nsamples = 24\nvalue = 110750.0", fillcolor="#fcf0e8"] ;
293 -> 294 ;
295 [label="rooms_per_household <= -0.62\nmse = 202341224.49\nsamples = 7\nvalue = 85785.714", fillcolor="#fdf8f3"] ;
294 -> 295 ;
296 [label="mse = 0.0\nsamples = 1\nvalue = 114800.0", fillcolor="#fcefe6"] ;
295 -> 296 ;
297 [label="mse = 72375833.333\nsamples = 6\nvalue = 80950.0", fillcolor="#fef9f6"] ;
295 -> 297 ;
298 [label="population_per_household <= 0.122\nmse = 305482076.125\nsamples = 17\nvalue = 121029.412", fillcolor="#fbeee4"] ;
294 -> 298 ;
299 [label="mse = 217102460.938\nsamples = 16\nvalue = 123543.75", fillcolor="#fbede2"] ;
298 -> 299 ;
300 [label="mse = 0.0\nsamples = 1\nvalue = 80800.0", fillcolor="#fef9f6"] ;
298 -> 300 ;
301 [label="population <= -0.768\nmse = 1316228875.0\nsamples = 20\nvalue = 142875.0", fillcolor="#fae7da"] ;
293 -> 301 ;
302 [label="population_per_household <= -0.026\nmse = 904788888.889\nsamples = 6\nvalue = 112133.333", fillcolor="#fcf0e8"] ;
301 -> 302 ;
303 [label="mse = 73102500.0\nsamples = 2\nvalue = 151450.0", fillcolor="#fae5d6"] ;
302 -> 303 ;
304 [label="mse = 161281875.0\nsamples = 4\nvalue = 92475.0", fillcolor="#fdf6f0"] ;
302 -> 304 ;
305 [label="latitude <= 0.993\nmse = 913958214.286\nsamples = 14\nvalue = 156050.0", fillcolor="#f9e3d4"] ;
301 -> 305 ;
306 [label="mse = 51428888.889\nsamples = 3\nvalue = 119233.333", fillcolor="#fbeee4"] ;
305 -> 306 ;
307 [label="mse = 678700826.446\nsamples = 11\nvalue = 166090.909", fillcolor="#f9e1cf"] ;
305 -> 307 ;
308 [label="mse = 0.0\nsamples = 1\nvalue = 275000.0", fillcolor="#f2c19e"] ;
292 -> 308 ;
309 [label="longitude <= -1.345\nmse = 14791630000.0\nsamples = 6\nvalue = 288300.0", fillcolor="#f2be98"] ;
213 -> 309 ;
310 [label="median_income <= -0.534\nmse = 451262222.222\nsamples = 3\nvalue = 176633.333", fillcolor="#f8decb"] ;
309 -> 310 ;
311 [label="population <= -0.21\nmse = 16810000.0\nsamples = 2\nvalue = 161800.0", fillcolor="#f9e2d1"] ;
310 -> 311 ;
312 [label="mse = 0.0\nsamples = 1\nvalue = 165900.0", fillcolor="#f9e1cf"] ;
311 -> 312 ;
313 [label="mse = 0.0\nsamples = 1\nvalue = 157700.0", fillcolor="#f9e3d3"] ;
311 -> 313 ;
314 [label="mse = 0.0\nsamples = 1\nvalue = 206300.0", fillcolor="#f6d5bd"] ;
310 -> 314 ;
315 [label="latitude <= 1.045\nmse = 4193108888.889\nsamples = 3\nvalue = 399966.667", fillcolor="#eb9e66"] ;
309 -> 315 ;
316 [label="mse = 0.0\nsamples = 1\nvalue = 489600.0", fillcolor="#e6843e"] ;
315 -> 316 ;
317 [label="housing_median_age <= 1.459\nmse = 264062500.0\nsamples = 2\nvalue = 355150.0", fillcolor="#eeaa7a"] ;
315 -> 317 ;
318 [label="mse = 0.0\nsamples = 1\nvalue = 371400.0", fillcolor="#eda673"] ;
317 -> 318 ;
319 [label="mse = 0.0\nsamples = 1\nvalue = 338900.0", fillcolor="#efaf81"] ;
317 -> 319 ;
320 [label="median_income <= 1.193\nmse = 6240290321.171\nsamples = 210\nvalue = 303987.171", fillcolor="#f1b991"] ;
0 -> 320 [labeldistance=2.5, labelangle=-45, headlabel="False"] ;
321 [label="longitude <= -1.31\nmse = 4180187434.964\nsamples = 124\nvalue = 267141.935", fillcolor="#f3c4a2"] ;
320 -> 321 ;
322 [label="total_bedrooms <= -1.178\nmse = 3806567967.347\nsamples = 35\nvalue = 319134.286", fillcolor="#f0b58a"] ;
321 -> 322 ;
323 [label="mse = 0.0\nsamples = 1\nvalue = 75000.0", fillcolor="#fefbf8"] ;
322 -> 323 ;
324 [label="longitude <= -1.355\nmse = 2113980666.09\nsamples = 34\nvalue = 326314.706", fillcolor="#efb387"] ;
322 -> 324 ;
325 [label="median_income <= 0.653\nmse = 289315555.556\nsamples = 3\nvalue = 256066.667", fillcolor="#f3c7a7"] ;
324 -> 325 ;
326 [label="mse = 0.0\nsamples = 1\nvalue = 232200.0", fillcolor="#f5ceb2"] ;
325 -> 326 ;
327 [label="housing_median_age <= 0.506\nmse = 6760000.0\nsamples = 2\nvalue = 268000.0", fillcolor="#f3c3a1"] ;
325 -> 327 ;
328 [label="mse = 0.0\nsamples = 1\nvalue = 265400.0", fillcolor="#f3c4a3"] ;
327 -> 328 ;
329 [label="mse = 0.0\nsamples = 1\nvalue = 270600.0", fillcolor="#f3c3a0"] ;
327 -> 329 ;
330 [label="latitude <= 1.028\nmse = 1766785639.958\nsamples = 31\nvalue = 333112.903", fillcolor="#efb184"] ;
324 -> 330 ;
331 [label="total_rooms <= 0.033\nmse = 779670000.0\nsamples = 16\nvalue = 310500.0", fillcolor="#f0b78e"] ;
330 -> 331 ;
332 [label="households <= -0.583\nmse = 617332900.0\nsamples = 10\nvalue = 325090.0", fillcolor="#efb388"] ;
331 -> 332 ;
333 [label="total_rooms <= -0.588\nmse = 210564722.222\nsamples = 6\nvalue = 308516.667", fillcolor="#f0b88f"] ;
332 -> 333 ;
334 [label="mse = 0.0\nsamples = 1\nvalue = 333000.0", fillcolor="#efb184"] ;
333 -> 334 ;
335 [label="population_per_household <= -0.051\nmse = 108813600.0\nsamples = 5\nvalue = 303620.0", fillcolor="#f1b991"] ;
333 -> 335 ;
336 [label="mse = 20702500.0\nsamples = 2\nvalue = 291850.0", fillcolor="#f1bd97"] ;
335 -> 336 ;
337 [label="mse = 13628888.889\nsamples = 3\nvalue = 311466.667", fillcolor="#f0b78e"] ;
335 -> 337 ;
338 [label="rooms_per_household <= -0.081\nmse = 197452500.0\nsamples = 4\nvalue = 349950.0", fillcolor="#eeac7d"] ;
332 -> 338 ;
339 [label="mse = 0.0\nsamples = 1\nvalue = 372000.0", fillcolor="#eda673"] ;
338 -> 339 ;
340 [label="rooms_per_household <= 0.125\nmse = 47180000.0\nsamples = 3\nvalue = 342600.0", fillcolor="#eeae80"] ;
338 -> 340 ;
341 [label="mse = 0.0\nsamples = 1\nvalue = 351800.0", fillcolor="#eeab7c"] ;
340 -> 341 ;
342 [label="mse = 7290000.0\nsamples = 2\nvalue = 338000.0", fillcolor="#efaf82"] ;
340 -> 342 ;
343 [label="population_per_household <= -0.063\nmse = 104151388.889\nsamples = 6\nvalue = 286183.333", fillcolor="#f2be99"] ;
331 -> 343 ;
344 [label="total_rooms <= 0.162\nmse = 33586875.0\nsamples = 4\nvalue = 292575.0", fillcolor="#f1bc96"] ;
343 -> 344 ;
345 [label="mse = 0.0\nsamples = 1\nvalue = 302100.0", fillcolor="#f1ba92"] ;
344 -> 345 ;
346 [label="population_per_household <= -0.092\nmse = 4460000.0\nsamples = 3\nvalue = 289400.0", fillcolor="#f1bd98"] ;
344 -> 346 ;
347 [label="mse = 0.0\nsamples = 1\nvalue = 286600.0", fillcolor="#f2be99"] ;
346 -> 347 ;
348 [label="mse = 810000.0\nsamples = 2\nvalue = 290800.0", fillcolor="#f1bd97"] ;
346 -> 348 ;
349 [label="population_per_household <= -0.06\nmse = 160000.0\nsamples = 2\nvalue = 273400.0", fillcolor="#f2c29f"] ;
343 -> 349 ;
350 [label="mse = 0.0\nsamples = 1\nvalue = 273800.0", fillcolor="#f2c29f"] ;
349 -> 350 ;
351 [label="mse = 0.0\nsamples = 1\nvalue = 273000.0", fillcolor="#f2c29f"] ;
349 -> 351 ;
352 [label="rooms_per_bedroom <= 1.009\nmse = 1692480888.889\nsamples = 15\nvalue = 357233.333", fillcolor="#edaa79"] ;
330 -> 352 ;
353 [label="median_income <= 0.653\nmse = 1174748163.265\nsamples = 7\nvalue = 390757.143", fillcolor="#eba06a"] ;
352 -> 353 ;
354 [label="mse = 0.0\nsamples = 1\nvalue = 456300.0", fillcolor="#e88e4d"] ;
353 -> 354 ;
355 [label="longitude <= -1.327\nmse = 535232222.222\nsamples = 6\nvalue = 379833.333", fillcolor="#eca36f"] ;
353 -> 355 ;
356 [label="median_income <= 0.968\nmse = 208098400.0\nsamples = 5\nvalue = 388340.0", fillcolor="#eca16b"] ;
355 -> 356 ;
357 [label="mse = 32985000.0\nsamples = 4\nvalue = 381600.0", fillcolor="#eca36e"] ;
356 -> 357 ;
358 [label="mse = 0.0\nsamples = 1\nvalue = 415300.0", fillcolor="#ea995f"] ;
356 -> 358 ;
359 [label="mse = 0.0\nsamples = 1\nvalue = 337300.0", fillcolor="#efb082"] ;
355 -> 359 ;
360 [label="median_income <= 0.809\nmse = 301687500.0\nsamples = 8\nvalue = 327900.0", fillcolor="#efb286"] ;
352 -> 360 ;
361 [label="total_rooms <= -0.237\nmse = 35527500.0\nsamples = 4\nvalue = 341250.0", fillcolor="#eeae80"] ;
360 -> 361 ;
362 [label="median_income <= 0.69\nmse = 90000.0\nsamples = 2\nvalue = 335300.0", fillcolor="#efb083"] ;
361 -> 362 ;
363 [label="mse = 0.0\nsamples = 1\nvalue = 335000.0", fillcolor="#efb083"] ;
362 -> 363 ;
364 [label="mse = 0.0\nsamples = 1\nvalue = 335600.0", fillcolor="#efb083"] ;
362 -> 364 ;
365 [label="rooms_per_bedroom <= 1.672\nmse = 160000.0\nsamples = 2\nvalue = 347200.0", fillcolor="#eead7e"] ;
361 -> 365 ;
366 [label="mse = 0.0\nsamples = 1\nvalue = 346800.0", fillcolor="#eead7e"] ;
365 -> 366 ;
367 [label="mse = 0.0\nsamples = 1\nvalue = 347600.0", fillcolor="#eead7e"] ;
365 -> 367 ;
368 [label="median_income <= 0.912\nmse = 211402500.0\nsamples = 4\nvalue = 314550.0", fillcolor="#f0b68c"] ;
360 -> 368 ;
369 [label="mse = 0.0\nsamples = 1\nvalue = 292000.0", fillcolor="#f1bd97"] ;
368 -> 369 ;
370 [label="longitude <= -1.32\nmse = 55868888.889\nsamples = 3\nvalue = 322066.667", fillcolor="#f0b489"] ;
368 -> 370 ;
371 [label="mse = 62500.0\nsamples = 2\nvalue = 327350.0", fillcolor="#efb287"] ;
370 -> 371 ;
372 [label="mse = 0.0\nsamples = 1\nvalue = 311500.0", fillcolor="#f0b78e"] ;
370 -> 372 ;
373 [label="longitude <= -1.08\nmse = 2846002002.272\nsamples = 89\nvalue = 246695.506", fillcolor="#f4caab"] ;
321 -> 373 ;
374 [label="rooms_per_household <= 0.775\nmse = 2027784542.212\nsamples = 87\nvalue = 242244.828", fillcolor="#f4cbad"] ;
373 -> 374 ;
375 [label="rooms_per_bedroom <= 0.822\nmse = 1473455797.903\nsamples = 84\nvalue = 237905.952", fillcolor="#f4ccaf"] ;
374 -> 375 ;
376 [label="housing_median_age <= 0.267\nmse = 1334081875.0\nsamples = 44\nvalue = 221425.0", fillcolor="#f5d1b6"] ;
375 -> 376 ;
377 [label="median_income <= 0.941\nmse = 1033706368.366\nsamples = 31\nvalue = 236051.613", fillcolor="#f5cdb0"] ;
376 -> 377 ;
378 [label="latitude <= 0.974\nmse = 851081479.29\nsamples = 26\nvalue = 228792.308", fillcolor="#f5cfb3"] ;
377 -> 378 ;
379 [label="rooms_per_bedroom <= 0.403\nmse = 677730176.0\nsamples = 25\nvalue = 225968.0", fillcolor="#f5cfb4"] ;
378 -> 379 ;
380 [label="mse = 283092900.0\nsamples = 10\nvalue = 207510.0", fillcolor="#f6d5bd"] ;
379 -> 380 ;
381 [label="mse = 562268622.222\nsamples = 15\nvalue = 238273.333", fillcolor="#f4ccaf"] ;
379 -> 381 ;
382 [label="mse = 0.0\nsamples = 1\nvalue = 299400.0", fillcolor="#f1ba93"] ;
378 -> 382 ;
383 [label="median_income <= 1.0\nmse = 284388000.0\nsamples = 5\nvalue = 273800.0", fillcolor="#f2c29f"] ;
377 -> 383 ;
384 [label="rooms_per_household <= 0.205\nmse = 2722500.0\nsamples = 2\nvalue = 255050.0", fillcolor="#f3c7a7"] ;
383 -> 384 ;
385 [label="mse = 0.0\nsamples = 1\nvalue = 256700.0", fillcolor="#f3c7a6"] ;
384 -> 385 ;
386 [label="mse = 0.0\nsamples = 1\nvalue = 253400.0", fillcolor="#f4c8a8"] ;
384 -> 386 ;
387 [label="longitude <= -1.215\nmse = 81540000.0\nsamples = 3\nvalue = 286300.0", fillcolor="#f2be99"] ;
383 -> 387 ;
388 [label="mse = 3240000.0\nsamples = 2\nvalue = 280000.0", fillcolor="#f2c09c"] ;
387 -> 388 ;
389 [label="mse = 0.0\nsamples = 1\nvalue = 298900.0", fillcolor="#f1bb93"] ;
387 -> 389 ;
390 [label="total_bedrooms <= -0.601\nmse = 323668639.053\nsamples = 13\nvalue = 186546.154", fillcolor="#f8dbc6"] ;
376 -> 390 ;
391 [label="rooms_per_bedroom <= 0.27\nmse = 55186400.0\nsamples = 5\nvalue = 169960.0", fillcolor="#f9e0ce"] ;
390 -> 391 ;
392 [label="mse = 0.0\nsamples = 1\nvalue = 156300.0", fillcolor="#f9e3d4"] ;
391 -> 392 ;
393 [label="population_per_household <= 0.005\nmse = 10671875.0\nsamples = 4\nvalue = 173375.0", fillcolor="#f8dfcc"] ;
391 -> 393 ;
394 [label="mse = 3422500.0\nsamples = 2\nvalue = 176050.0", fillcolor="#f8decb"] ;
393 -> 394 ;
395 [label="mse = 3610000.0\nsamples = 2\nvalue = 170700.0", fillcolor="#f8dfcd"] ;
393 -> 395 ;
396 [label="population <= -0.546\nmse = 212071093.75\nsamples = 8\nvalue = 196912.5", fillcolor="#f7d8c1"] ;
390 -> 396 ;
397 [label="mse = 0.0\nsamples = 1\nvalue = 227000.0", fillcolor="#f5cfb4"] ;
396 -> 397 ;
398 [label="median_income <= 0.806\nmse = 94569795.918\nsamples = 7\nvalue = 192614.286", fillcolor="#f7d9c3"] ;
396 -> 398 ;
399 [label="mse = 17195555.556\nsamples = 6\nvalue = 188966.667", fillcolor="#f7dac5"] ;
398 -> 399 ;
400 [label="mse = 0.0\nsamples = 1\nvalue = 214500.0", fillcolor="#f6d3b9"] ;
398 -> 400 ;
401 [label="total_bedrooms <= 2.421\nmse = 999320775.0\nsamples = 40\nvalue = 256035.0", fillcolor="#f3c7a7"] ;
375 -> 401 ;
402 [label="latitude <= 1.017\nmse = 677358553.583\nsamples = 39\nvalue = 253087.179", fillcolor="#f4c8a8"] ;
401 -> 402 ;
403 [label="housing_median_age <= -1.043\nmse = 506365879.501\nsamples = 38\nvalue = 250886.842", fillcolor="#f4c8a9"] ;
402 -> 403 ;
404 [label="rooms_per_bedroom <= 0.954\nmse = 286035000.0\nsamples = 4\nvalue = 277400.0", fillcolor="#f2c19d"] ;
403 -> 404 ;
405 [label="mse = 73102500.0\nsamples = 2\nvalue = 292050.0", fillcolor="#f1bd97"] ;
404 -> 405 ;
406 [label="mse = 69722500.0\nsamples = 2\nvalue = 262750.0", fillcolor="#f3c5a4"] ;
404 -> 406 ;
407 [label="rooms_per_bedroom <= 1.374\nmse = 439858070.934\nsamples = 34\nvalue = 247767.647", fillcolor="#f4c9ab"] ;
403 -> 407 ;
408 [label="mse = 441532263.314\nsamples = 26\nvalue = 242865.385", fillcolor="#f4cbad"] ;
407 -> 408 ;
409 [label="mse = 102472500.0\nsamples = 8\nvalue = 263700.0", fillcolor="#f3c5a3"] ;
407 -> 409 ;
410 [label="mse = 0.0\nsamples = 1\nvalue = 336700.0", fillcolor="#efb082"] ;
402 -> 410 ;
411 [label="mse = 0.0\nsamples = 1\nvalue = 371000.0", fillcolor="#eda673"] ;
401 -> 411 ;
412 [label="latitude <= 0.958\nmse = 2262408888.889\nsamples = 3\nvalue = 363733.333", fillcolor="#eda876"] ;
374 -> 412 ;
413 [label="mse = 0.0\nsamples = 1\nvalue = 431000.0", fillcolor="#e99558"] ;
412 -> 413 ;
414 [label="population <= -0.75\nmse = 10000.0\nsamples = 2\nvalue = 330100.0", fillcolor="#efb285"] ;
412 -> 414 ;
415 [label="mse = 0.0\nsamples = 1\nvalue = 330000.0", fillcolor="#efb286"] ;
414 -> 415 ;
416 [label="mse = 0.0\nsamples = 1\nvalue = 330200.0", fillcolor="#efb285"] ;
414 -> 416 ;
417 [label="rooms_per_household <= 0.437\nmse = 94090000.0\nsamples = 2\nvalue = 440300.0", fillcolor="#e99254"] ;
373 -> 417 ;
418 [label="mse = 0.0\nsamples = 1\nvalue = 430600.0", fillcolor="#e99558"] ;
417 -> 418 ;
419 [label="mse = 0.0\nsamples = 1\nvalue = 450000.0", fillcolor="#e88f50"] ;
417 -> 419 ;
420 [label="median_income <= 2.091\nmse = 4430903843.981\nsamples = 86\nvalue = 357112.86", fillcolor="#edaa79"] ;
320 -> 420 ;
421 [label="latitude <= 1.017\nmse = 2353835848.521\nsamples = 65\nvalue = 331987.692", fillcolor="#efb185"] ;
420 -> 421 ;
422 [label="housing_median_age <= 0.466\nmse = 1726148443.75\nsamples = 40\nvalue = 312682.5", fillcolor="#f0b78d"] ;
421 -> 422 ;
423 [label="population_per_household <= 0.057\nmse = 1373520450.139\nsamples = 38\nvalue = 317318.421", fillcolor="#f0b58b"] ;
422 -> 423 ;
424 [label="rooms_per_bedroom <= 1.856\nmse = 1160645833.333\nsamples = 36\nvalue = 321216.667", fillcolor="#f0b489"] ;
423 -> 424 ;
425 [label="total_bedrooms <= 0.591\nmse = 1157694829.932\nsamples = 21\nvalue = 311357.143", fillcolor="#f0b78e"] ;
424 -> 425 ;
426 [label="latitude <= 0.956\nmse = 954484722.222\nsamples = 12\nvalue = 297183.333", fillcolor="#f1bb94"] ;
425 -> 426 ;
427 [label="population <= -0.224\nmse = 662518055.556\nsamples = 6\nvalue = 317016.667", fillcolor="#f0b58b"] ;
426 -> 427 ;
428 [label="mse = 574435555.556\nsamples = 3\nvalue = 334266.667", fillcolor="#efb084"] ;
427 -> 428 ;
429 [label="mse = 155475555.556\nsamples = 3\nvalue = 299766.667", fillcolor="#f1ba93"] ;
427 -> 429 ;
430 [label="households <= -0.787\nmse = 459729166.667\nsamples = 6\nvalue = 277350.0", fillcolor="#f2c19d"] ;
426 -> 430 ;
431 [label="mse = 0.0\nsamples = 1\nvalue = 318200.0", fillcolor="#f0b58b"] ;
430 -> 431 ;
432 [label="mse = 151181600.0\nsamples = 5\nvalue = 269180.0", fillcolor="#f3c3a1"] ;
430 -> 432 ;
433 [label="median_income <= 1.663\nmse = 803629135.802\nsamples = 9\nvalue = 330255.556", fillcolor="#efb285"] ;
425 -> 433 ;
434 [label="median_income <= 1.562\nmse = 265613877.551\nsamples = 7\nvalue = 318342.857", fillcolor="#f0b58b"] ;
433 -> 434 ;
435 [label="mse = 91108888.889\nsamples = 6\nvalue = 323933.333", fillcolor="#efb388"] ;
434 -> 435 ;
436 [label="mse = 0.0\nsamples = 1\nvalue = 284800.0", fillcolor="#f2bf9a"] ;
434 -> 436 ;
437 [label="total_bedrooms <= 3.135\nmse = 451562500.0\nsamples = 2\nvalue = 371950.0", fillcolor="#eda673"] ;
433 -> 437 ;
438 [label="mse = 0.0\nsamples = 1\nvalue = 393200.0", fillcolor="#eba069"] ;
437 -> 438 ;
439 [label="mse = 0.0\nsamples = 1\nvalue = 350700.0", fillcolor="#eeac7c"] ;
437 -> 439 ;
440 [label="housing_median_age <= -1.837\nmse = 838150933.333\nsamples = 15\nvalue = 335020.0", fillcolor="#efb083"] ;
424 -> 440 ;
441 [label="mse = 0.0\nsamples = 1\nvalue = 412500.0", fillcolor="#ea9a60"] ;
440 -> 441 ;
442 [label="population_per_household <= -0.033\nmse = 438594081.633\nsamples = 14\nvalue = 329485.714", fillcolor="#efb286"] ;
440 -> 442 ;
443 [label="population_per_household <= -0.077\nmse = 174487500.0\nsamples = 4\nvalue = 348350.0", fillcolor="#eeac7d"] ;
442 -> 443 ;
444 [label="mse = 0.0\nsamples = 1\nvalue = 371200.0", fillcolor="#eda673"] ;
443 -> 444 ;
445 [label="mse = 595555.556\nsamples = 3\nvalue = 340733.333", fillcolor="#eeaf81"] ;
443 -> 445 ;
446 [label="housing_median_age <= -0.487\nmse = 344954400.0\nsamples = 10\nvalue = 321940.0", fillcolor="#f0b489"] ;
442 -> 446 ;
447 [label="mse = 10293333.333\nsamples = 6\nvalue = 333400.0", fillcolor="#efb184"] ;
446 -> 447 ;
448 [label="mse = 354452500.0\nsamples = 4\nvalue = 304750.0", fillcolor="#f1b991"] ;
446 -> 448 ;
449 [label="total_bedrooms <= -0.669\nmse = 8122500.0\nsamples = 2\nvalue = 247150.0", fillcolor="#f4c9ab"] ;
423 -> 449 ;
450 [label="mse = 0.0\nsamples = 1\nvalue = 244300.0", fillcolor="#f4caac"] ;
449 -> 450 ;
451 [label="mse = 0.0\nsamples = 1\nvalue = 250000.0", fillcolor="#f4c9aa"] ;
449 -> 451 ;
452 [label="housing_median_age <= 0.744\nmse = 259210000.0\nsamples = 2\nvalue = 224600.0", fillcolor="#f5d0b5"] ;
422 -> 452 ;
453 [label="mse = 0.0\nsamples = 1\nvalue = 208500.0", fillcolor="#f6d4bc"] ;
452 -> 453 ;
454 [label="mse = 0.0\nsamples = 1\nvalue = 240700.0", fillcolor="#f4cbae"] ;
452 -> 454 ;
455 [label="rooms_per_household <= 0.177\nmse = 1807743424.0\nsamples = 25\nvalue = 362876.0", fillcolor="#eda877"] ;
421 -> 455 ;
456 [label="mse = 0.0\nsamples = 1\nvalue = 483300.0", fillcolor="#e68641"] ;
455 -> 456 ;
457 [label="longitude <= -1.33\nmse = 1253641597.222\nsamples = 24\nvalue = 357858.333", fillcolor="#edaa79"] ;
455 -> 457 ;
458 [label="population_per_household <= -0.083\nmse = 790683288.889\nsamples = 15\nvalue = 373226.667", fillcolor="#eca572"] ;
457 -> 458 ;
459 [label="rooms_per_bedroom <= 1.206\nmse = 11120000.0\nsamples = 3\nvalue = 345400.0", fillcolor="#eead7f"] ;
458 -> 459 ;
460 [label="rooms_per_household <= 0.406\nmse = 810000.0\nsamples = 2\nvalue = 343100.0", fillcolor="#eeae80"] ;
459 -> 460 ;
461 [label="mse = 0.0\nsamples = 1\nvalue = 344000.0", fillcolor="#eeae7f"] ;
460 -> 461 ;
462 [label="mse = 0.0\nsamples = 1\nvalue = 342200.0", fillcolor="#eeae80"] ;
460 -> 462 ;
463 [label="mse = 0.0\nsamples = 1\nvalue = 350000.0", fillcolor="#eeac7d"] ;
459 -> 463 ;
464 [label="total_rooms <= -0.553\nmse = 743598055.556\nsamples = 12\nvalue = 380183.333", fillcolor="#eca36f"] ;
458 -> 464 ;
465 [label="mse = 0.0\nsamples = 1\nvalue = 446200.0", fillcolor="#e89051"] ;
464 -> 465 ;
466 [label="rooms_per_bedroom <= 2.266\nmse = 378979669.422\nsamples = 11\nvalue = 374181.818", fillcolor="#eca572"] ;
464 -> 466 ;
467 [label="rooms_per_bedroom <= 2.177\nmse = 332549135.802\nsamples = 9\nvalue = 379055.556", fillcolor="#eca46f"] ;
466 -> 467 ;
468 [label="mse = 166277500.0\nsamples = 8\nvalue = 374250.0", fillcolor="#eca572"] ;
467 -> 468 ;
469 [label="mse = 0.0\nsamples = 1\nvalue = 417500.0", fillcolor="#ea995e"] ;
467 -> 469 ;
470 [label="latitude <= 1.028\nmse = 22500.0\nsamples = 2\nvalue = 352250.0", fillcolor="#eeab7b"] ;
466 -> 470 ;
471 [label="mse = 0.0\nsamples = 1\nvalue = 352400.0", fillcolor="#eeab7b"] ;
470 -> 471 ;
472 [label="mse = 0.0\nsamples = 1\nvalue = 352100.0", fillcolor="#eeab7c"] ;
470 -> 472 ;
473 [label="rooms_per_household <= 0.456\nmse = 975524691.358\nsamples = 9\nvalue = 332244.444", fillcolor="#efb184"] ;
457 -> 473 ;
474 [label="longitude <= -1.317\nmse = 346935555.556\nsamples = 3\nvalue = 296066.667", fillcolor="#f1bb95"] ;
473 -> 474 ;
475 [label="population <= -0.465\nmse = 115562500.0\nsamples = 2\nvalue = 284450.0", fillcolor="#f2bf9a"] ;
474 -> 475 ;
476 [label="mse = 0.0\nsamples = 1\nvalue = 273700.0", fillcolor="#f2c29f"] ;
475 -> 476 ;
477 [label="mse = 0.0\nsamples = 1\nvalue = 295200.0", fillcolor="#f1bc95"] ;
475 -> 477 ;
478 [label="mse = 0.0\nsamples = 1\nvalue = 319300.0", fillcolor="#f0b58a"] ;
474 -> 478 ;
479 [label="housing_median_age <= 1.062\nmse = 308195555.556\nsamples = 6\nvalue = 350333.333", fillcolor="#eeac7c"] ;
473 -> 479 ;
480 [label="households <= -0.301\nmse = 6362222.222\nsamples = 3\nvalue = 366133.333", fillcolor="#eda775"] ;
479 -> 480 ;
481 [label="longitude <= -1.31\nmse = 1210000.0\nsamples = 2\nvalue = 367800.0", fillcolor="#eda774"] ;
480 -> 481 ;
482 [label="mse = 0.0\nsamples = 1\nvalue = 366700.0", fillcolor="#eda775"] ;
481 -> 482 ;
483 [label="mse = 0.0\nsamples = 1\nvalue = 368900.0", fillcolor="#eda774"] ;
481 -> 483 ;
484 [label="mse = 0.0\nsamples = 1\nvalue = 362800.0", fillcolor="#eda877"] ;
480 -> 484 ;
485 [label="rooms_per_bedroom <= 2.079\nmse = 110748888.889\nsamples = 3\nvalue = 334533.333", fillcolor="#efb083"] ;
479 -> 485 ;
486 [label="rooms_per_bedroom <= 1.69\nmse = 15602500.0\nsamples = 2\nvalue = 327450.0", fillcolor="#efb287"] ;
485 -> 486 ;
487 [label="mse = 0.0\nsamples = 1\nvalue = 323500.0", fillcolor="#efb488"] ;
486 -> 487 ;
488 [label="mse = 0.0\nsamples = 1\nvalue = 331400.0", fillcolor="#efb185"] ;
486 -> 488 ;
489 [label="mse = 0.0\nsamples = 1\nvalue = 348700.0", fillcolor="#eeac7d"] ;
485 -> 489 ;
490 [label="population_per_household <= -0.036\nmse = 2858059705.419\nsamples = 21\nvalue = 434881.238", fillcolor="#e99456"] ;
420 -> 490 ;
491 [label="median_income <= 2.105\nmse = 1898122705.868\nsamples = 11\nvalue = 398754.636", fillcolor="#eb9e67"] ;
490 -> 491 ;
492 [label="mse = 0.0\nsamples = 1\nvalue = 500001.0", fillcolor="#e58139"] ;
491 -> 492 ;
493 [label="total_rooms <= -0.642\nmse = 960344100.0\nsamples = 10\nvalue = 388630.0", fillcolor="#eca16b"] ;
491 -> 493 ;
494 [label="total_rooms <= -0.953\nmse = 691690000.0\nsamples = 2\nvalue = 426300.0", fillcolor="#e9965a"] ;
493 -> 494 ;
495 [label="mse = 0.0\nsamples = 1\nvalue = 400000.0", fillcolor="#eb9e66"] ;
494 -> 495 ;
496 [label="mse = 0.0\nsamples = 1\nvalue = 452600.0", fillcolor="#e88f4e"] ;
494 -> 496 ;
497 [label="rooms_per_household <= 0.886\nmse = 584061093.75\nsamples = 8\nvalue = 379212.5", fillcolor="#eca46f"] ;
493 -> 497 ;
498 [label="total_rooms <= -0.29\nmse = 65669600.0\nsamples = 5\nvalue = 363220.0", fillcolor="#eda877"] ;
497 -> 498 ;
499 [label="population_per_household <= -0.061\nmse = 36362222.222\nsamples = 3\nvalue = 358133.333", fillcolor="#edaa79"] ;
498 -> 499 ;
500 [label="mse = 0.0\nsamples = 1\nvalue = 365900.0", fillcolor="#eda775"] ;
499 -> 500 ;
501 [label="population <= -0.707\nmse = 9302500.0\nsamples = 2\nvalue = 354250.0", fillcolor="#eeab7b"] ;
499 -> 501 ;
502 [label="mse = 0.0\nsamples = 1\nvalue = 351200.0", fillcolor="#eeac7c"] ;
501 -> 502 ;
503 [label="mse = 0.0\nsamples = 1\nvalue = 357300.0", fillcolor="#edaa79"] ;
501 -> 503 ;
504 [label="total_bedrooms <= -0.485\nmse = 12602500.0\nsamples = 2\nvalue = 370850.0", fillcolor="#eda673"] ;
498 -> 504 ;
505 [label="mse = 0.0\nsamples = 1\nvalue = 374400.0", fillcolor="#eca572"] ;
504 -> 505 ;
506 [label="mse = 0.0\nsamples = 1\nvalue = 367300.0", fillcolor="#eda775"] ;
504 -> 506 ;
507 [label="total_rooms <= 0.16\nmse = 311335555.556\nsamples = 3\nvalue = 405866.667", fillcolor="#eb9c63"] ;
497 -> 507 ;
508 [label="total_rooms <= -0.078\nmse = 11902500.0\nsamples = 2\nvalue = 393550.0", fillcolor="#eb9f69"] ;
507 -> 508 ;
509 [label="mse = 0.0\nsamples = 1\nvalue = 397000.0", fillcolor="#eb9e67"] ;
508 -> 509 ;
510 [label="mse = 0.0\nsamples = 1\nvalue = 390100.0", fillcolor="#eba06a"] ;
508 -> 510 ;
511 [label="mse = 0.0\nsamples = 1\nvalue = 430500.0", fillcolor="#e99558"] ;
507 -> 511 ;
512 [label="median_income <= 2.773\nmse = 899136980.25\nsamples = 10\nvalue = 474620.5", fillcolor="#e68844"] ;
490 -> 512 ;
513 [label="population_per_household <= -0.006\nmse = 860755968.16\nsamples = 5\nvalue = 454080.2", fillcolor="#e88e4e"] ;
512 -> 513 ;
514 [label="population_per_household <= -0.034\nmse = 287319450.25\nsamples = 2\nvalue = 483050.5", fillcolor="#e68641"] ;
513 -> 514 ;
515 [label="mse = 0.0\nsamples = 1\nvalue = 500001.0", fillcolor="#e58139"] ;
514 -> 515 ;
516 [label="mse = 0.0\nsamples = 1\nvalue = 466100.0", fillcolor="#e78b48"] ;
514 -> 516 ;
517 [label="median_income <= 2.512\nmse = 310515555.556\nsamples = 3\nvalue = 434766.667", fillcolor="#e99456"] ;
513 -> 517 ;
518 [label="population_per_household <= 0.025\nmse = 16810000.0\nsamples = 2\nvalue = 447000.0", fillcolor="#e89051"] ;
517 -> 518 ;
519 [label="mse = 0.0\nsamples = 1\nvalue = 451100.0", fillcolor="#e88f4f"] ;
518 -> 519 ;
520 [label="mse = 0.0\nsamples = 1\nvalue = 442900.0", fillcolor="#e89153"] ;
518 -> 520 ;
521 [label="mse = 0.0\nsamples = 1\nvalue = 410300.0", fillcolor="#ea9b61"] ;
517 -> 521 ;
522 [label="households <= -0.643\nmse = 93710144.16\nsamples = 5\nvalue = 495160.8", fillcolor="#e5823b"] ;
512 -> 522 ;
523 [label="mse = 0.0\nsamples = 1\nvalue = 475800.0", fillcolor="#e68844"] ;
522 -> 523 ;
524 [label="mse = 0.0\nsamples = 4\nvalue = 500001.0", fillcolor="#e58139"] ;
522 -> 524 ;
}